<?xml version="1.0"?>
<opencv_storage>
<my_nn type_id="opencv-ml-ann-mlp">
  <layer_sizes type_id="opencv-matrix">
    <rows>1</rows>
    <cols>3</cols>
    <dt>i</dt>
    <data>
      6 17 6</data></layer_sizes>
  <activation_function>SIGMOID_SYM</activation_function>
  <f_param1>6.6666666666666663e-01</f_param1>
  <f_param2>1.7159000000000000e+00</f_param2>
  <min_val>-9.4999999999999996e-01</min_val>
  <max_val>9.4999999999999996e-01</max_val>
  <min_val1>-9.7999999999999998e-01</min_val1>
  <max_val1>9.7999999999999998e-01</max_val1>
  <training_params>
    <train_method>BACKPROP</train_method>
    <dw_scale>1.0000000000000001e-01</dw_scale>
    <moment_scale>1.0000000000000001e-01</moment_scale>
    <term_criteria><epsilon>9.9999997473787516e-06</epsilon>
      <iterations>1000</iterations></term_criteria></training_params>
  <input_scale>
    8.1578801170065648e-02 6.4573099825534728e+00 1.0115368505005813e-01
    8.5398393819183962e+00 1.0477281153771724e-01 1.0474261498930117e+01
    4.0005068943444737e-02 1.4807102675078960e+00 6.0093891912156243e-02
    -5.2219680808091962e+00 3.0783229923303734e-02
    2.0714322298484893e+00</input_scale>
  <output_scale>
    1.1410000136024074e+00 -4.9714997410774220e-01
    1.3640526721352026e+00 1.6299962997436520e-02 1.5484999982934251e+00
    3.0562502145767223e-01 5.4690790803808920e-01
    -1.2700471282005302e-01 1.0266168964536566e+00
    -7.0226104557514191e-01 1.0952458883586684e+00
    3.9391398429870668e-02</output_scale>
  <inv_output_scale>
    8.7642417885935253e-01 4.3571425782732631e-01 7.3310952020251730e-01
    -1.1949658052369472e-02 6.4578624546469654e-01
    -1.9736843512721747e-01 1.8284614014583884e+00
    2.3222321519477429e-01 9.7407319463998498e-01 6.8405366013459457e-01
    9.1303698158465263e-01 -3.5965803522807538e-02</inv_output_scale>
  <weights>
    <_>
      -2.0678037948440160e+00 4.0500641656654202e-01
      -3.7313467917925963e-01 -3.9582807125841911e-03
      9.8220051123971752e-02 1.8893515746677514e-01
      9.8206872671310567e-03 -5.2410665747772915e-02
      -2.0865860892433682e-01 -2.7863067248619255e-01
      -4.8788574931456391e-01 -6.6028653157329020e-01
      2.6263104343150895e-01 2.0127475699057737e-01
      -1.5122269328843718e-01 -6.2856039375009753e-01
      -3.4401723392013062e-01 -5.2035907905737389e-01
      1.2116901526609646e-01 -3.3674655071225357e-01
      2.9201321801022145e-01 4.5537879502981793e-01
      -1.6503124612433442e-01 1.7288389531869883e-01
      -5.0416710079274873e-01 5.5634486767705249e-01
      1.1232903221854391e+00 1.7378132450484671e-01
      1.7823691211459849e-01 -3.3243594809541138e-01
      3.6745492624159931e-01 -1.8606051948828126e-01
      5.6822662981800309e-01 -7.5136597291370469e-02
      -3.0657281226916187e+00 4.2730874255217499e-01
      -6.0995441899748937e-01 2.3023015990219775e-01
      5.1036916684229650e-01 -1.1707156446934184e-02
      -6.1164471257743347e-01 -6.6153782014013396e-01
      5.6184634077554318e-01 -2.2451232657010620e-01
      6.6611159113643514e-01 -5.7421401142100281e-01
      1.5775312199494212e-02 4.2641645021232055e-01
      -5.8373937805946075e-01 4.2811152855007029e-02
      -5.3985594324245978e-01 -2.7115083833956954e+00
      1.3790318822125927e+00 -1.8019515278079370e+00
      9.4996075632043186e-01 1.5119372213219537e+00
      6.4060503534006275e-02 -6.2054699461038176e-01
      -1.6642476575376315e+00 1.3522704482484400e+00
      1.1396528624040625e+00 2.2948007533767309e-01
      -1.4316127818087696e+00 -5.3978074890005834e-01
      1.3772517083449407e+00 -9.4359040031849639e-01
      8.5923833827614982e-01 -8.4415786156695094e-01
      -1.1510440011003593e+00 -4.5504182288320821e-01
      1.6771836520561267e-01 8.5610081037038877e-01
      -5.3660835711259869e-01 -4.3588949533425092e-01
      -2.3722946725370556e-01 -2.5719742339596410e-02
      6.1313926450434630e-01 2.2164953337265100e-01
      -4.8360422955053917e-01 -6.1294808367171716e-01
      5.2486683216440444e-01 -8.6406913691141018e-01
      -8.6421448010216417e-01 4.9421142596650258e-01
      -1.3465839220006863e+00 1.4493771980575572e+00
      5.7051069556760192e-01 9.5255434232295566e-01
      -1.3042057805494425e+00 1.2059087450764003e+00
      -1.9812302718028028e+00 1.9332761130574627e-01
      5.9489015936730882e-01 -1.4861383917746940e+00
      -3.5628101067347079e-01 5.7088713018720805e-01
      -5.0131596965477948e-02 -1.1701328493946890e+00
      -1.1445046855498895e+00 -1.5831077360063228e+00
      -3.8348519321735453e-01 -1.1641355348588738e+00
      1.8088768027143123e+00 9.4718278562849567e-01
      -1.3347507860052529e-01 -2.0024185421118363e+00
      -2.0631544392391010e+00 1.4852580750735125e+00
      -4.9287262570900553e-01 2.4070608008124013e+00
      1.7984090384559455e+00 -5.5454576071989037e-01
      -4.7464146962657872e-01 1.5438422826105293e-03
      -2.9761827874803171e-01 -4.9575211156061338e-02
      -1.9982632273427801e+00 2.1238688960339666e-01
      8.1062004906429974e-01</_>
    <_>
      8.9265290360539415e-02 -1.5686174732965106e-02
      1.8176625358213318e-02 5.4970770893539786e-02
      -2.6623675998120103e-02 2.7115643663440225e-02
      -5.7211789263203705e-01 2.3128756809229609e-01
      2.7442836152796961e-02 -2.1887850065997960e-01
      -3.1643425202842618e-01 -2.7301045815152958e-01
      6.6524201493422574e-01 9.2396658099137857e-02
      -1.7825661135171558e-01 -5.1794270135152287e-01
      1.7609625036367385e-01 2.2118103825563361e-02
      -1.0728537797042756e+00 -2.7248193456071523e-01
      -1.1248929281407889e-01 1.5695027589491938e-03
      -5.8114933610982555e-01 -1.3433907051312405e-01
      1.1178933670748456e-01 1.0400128403302171e+00
      -1.2321404062644095e-01 -1.1359708597776497e+00
      3.6007210084701397e-02 8.1655510428329048e-01
      -9.0856985880895724e-01 -6.3206763079756631e-03
      -7.1662908896027500e-02 1.0182673853454225e-02
      1.0834950334439791e-02 8.3911588364155160e-02
      -2.5617949184097377e-01 2.3254780917240975e-01
      -5.5543631368278734e-01 -2.4583533795193686e-02
      -1.0976869652473945e-01 -4.8018527569600275e-02
      -4.0131881361974403e-01 6.6436052870357853e-01
      3.8262251164116701e-01 -8.6969012615849983e-01
      -1.1116696121628693e+00 6.8072660525145479e-01
      -5.5035623924247257e-01 4.4291907864424784e-01
      8.6464818864934276e-02 -5.4520350004897644e-01
      3.8529184333719851e-02 4.5259176552526859e-01
      6.6499116432209779e-02 -9.6023034499981199e-03
      -6.9768377769612158e-02 9.6987661189106580e-02
      4.8828763138386838e-01 1.8935277113700674e-01
      -1.6506573263635524e-01 -9.4176754949918479e-02
      -4.5062563447190168e-01 3.3721753973353297e-01
      2.3776776492000495e-01 -4.3537926413836872e-02
      -6.9993902167506739e-01 1.3067452257678708e-01
      4.6023778790013070e-01 -1.1578883222494614e-01
      -1.7165718648825173e-01 -1.0507634401835850e-01
      1.0395720172859864e+00 4.1510034479158420e-01
      3.4839005604373807e-02 -7.1784878597810561e-02
      1.8145960927079960e-01 3.5550561757400331e-02
      7.1523042980762108e-01 -3.4850302359842017e-01
      -1.9340781289851611e-01 -6.1131630404799020e-03
      -1.6860912898028957e-01 -2.4067912661296931e-01
      5.9280730331440656e-01 -3.2292930644463741e-01
      -2.3368812253822283e-01 2.3164438663673459e-01
      4.6488695988116319e-01 -2.6624544578122972e-01
      5.4148733653198855e-01 2.4533744704117758e-01
      -2.1283232436253852e-01 -2.7950907216411586e-01
      -3.8152511965671060e-01 -6.2953424555833165e-02
      -6.7493009149997230e-02 -1.9801256164449485e-01
      2.1845497331837799e-01 2.5711770329465478e-01
      -4.7291457811573506e-01 -2.4237878508319000e-01
      8.0967737469693191e-01 -1.7823352734001940e-01
      -3.3165622466788358e-01 2.6016912584691487e-01
      5.9074431871027733e-01 -6.9522238560346117e-02</_></weights></my_nn>
</opencv_storage>
